Language model created by QuickLM on Sat Dec 24 14:31:39 EST 2016
Copyright (c) 1996-2010 Carnegie Mellon University and Alexander I. Rudnicky

The model is in standard ARPA format, designed by Doug Paul while he was at MITRE.

The code that was used to produce this language model is available in Open Source.
Please visit http://www.speech.cs.cmu.edu/tools/ for more information

The (fixed) discount mass is 0.5. The backoffs are computed using the ratio method.
This model based on a corpus of 14 sentences and 16 words

\data\
ngram 1=16
ngram 2=28
ngram 3=14

\1-grams:
-0.7782 </s> -0.3010
-0.7782 <s> -0.2218
-1.9243 أمام -0.2218
-1.9243 أَمَامْ -0.2218
-1.9243 بطيء -0.2218
-1.9243 بَطِيءْ -0.2218
-1.9243 خلف -0.2218
-1.9243 خَلْف -0.2218
-1.9243 سريع -0.2218
-1.9243 سَرِيعْ -0.2218
-1.9243 قف -0.2218
-1.9243 قِفْ -0.2218
-1.9243 يسار -0.2218
-1.9243 يمين -0.2218
-1.9243 يَسَارْ -0.2218
-1.9243 يَمِينْ -0.2218

\2-grams:
-1.4472 <s> أمام 0.0000
-1.4472 <s> أَمَامْ 0.0000
-1.4472 <s> بطيء 0.0000
-1.4472 <s> بَطِيءْ 0.0000
-1.4472 <s> خلف 0.0000
-1.4472 <s> خَلْف 0.0000
-1.4472 <s> سريع 0.0000
-1.4472 <s> سَرِيعْ 0.0000
-1.4472 <s> قف 0.0000
-1.4472 <s> قِفْ 0.0000
-1.4472 <s> يسار 0.0000
-1.4472 <s> يمين 0.0000
-1.4472 <s> يَسَارْ 0.0000
-1.4472 <s> يَمِينْ 0.0000
-0.3010 أمام </s> -0.3010
-0.3010 أَمَامْ </s> -0.3010
-0.3010 بطيء </s> -0.3010
-0.3010 بَطِيءْ </s> -0.3010
-0.3010 خلف </s> -0.3010
-0.3010 خَلْف </s> -0.3010
-0.3010 سريع </s> -0.3010
-0.3010 سَرِيعْ </s> -0.3010
-0.3010 قف </s> -0.3010
-0.3010 قِفْ </s> -0.3010
-0.3010 يسار </s> -0.3010
-0.3010 يمين </s> -0.3010
-0.3010 يَسَارْ </s> -0.3010
-0.3010 يَمِينْ </s> -0.3010

\3-grams:
-0.3010 <s> أمام </s>
-0.3010 <s> أَمَامْ </s>
-0.3010 <s> بطيء </s>
-0.3010 <s> بَطِيءْ </s>
-0.3010 <s> خلف </s>
-0.3010 <s> خَلْف </s>
-0.3010 <s> سريع </s>
-0.3010 <s> سَرِيعْ </s>
-0.3010 <s> قف </s>
-0.3010 <s> قِفْ </s>
-0.3010 <s> يسار </s>
-0.3010 <s> يمين </s>
-0.3010 <s> يَسَارْ </s>
-0.3010 <s> يَمِينْ </s>

\end\
